svm_type c_svc
kernel_type rbf
gamma 3.05176e-005
nr_class 6
total_sv 550
rho 0.996386 0.989617 0.95859 0.861939 0.841948 0.940199 0.596858 0.0299811 -0.539328 0.0581727 -0.1629 -0.790565 -0.87513 -0.93035 -0.949848
label 1 2 3 4 5 6
probA -355.966 -326.503 -77.2657 -24.2544 -18.3695 -82.1917 -12.0009 -4.79076 -9.08889 -2.81971 -6.98578 -18.603 -23.7357 -44.0399 -45.5671
probB -353.948 -323.501 -73.0454 -20.2524 -15.2036 -80.328 -7.68643 -0.364249 4.94798 -0.358785 0.674676 13.8034 20.7516 40.4063 43.6363
nr_sv 7 53 182 217 68 23
SV
0.03125 0.03125 0.03125 0.03125 0.03125 1:261 2:54 3:9 
0.03125 0.03125 0.03125 0.03125 0.03125 1:264 2:1 3:7 
0.03125 0.03125 0.03125 0.03125 0.03125 1:262 2:1 3:10 
0.03125 0.03125 0.03125 0.03125 0.03125 1:265 2:1 3:8 
0.03125 0.03125 0.03125 0.03125 0.03125 1:265 2:3 3:6 
0.03125 0.03125 0.03125 0.03125 0.03125 1:260 2:3 3:23 
0.03125 0.03125 0.03125 0.03125 0.03125 1:263 2:12 3:19 
-0 0.03125 0.03125 0.03125 0.03125 1:239 2:108 3:13 
-0 0.03125 0.03125 0.03125 0 1:253 2:100 3:76 
-0 0.03125 0.03125 0.03125 0.03125 1:169 2:82 3:76 
-0 0.03125 0.03125 0.03125 0 1:226 2:82 3:31 
-0 0.03125 0.03125 0.03125 0 1:226 2:82 3:52 
-0 0.03125 0.03125 0.03125 0.03125 1:166 2:132 3:71 
-0 0.03125 0.03125 0.03125 0.03125 1:232 2:130 3:34 
-0 0.03125 0.03125 0.03125 0 1:226 2:54 3:74 
-0 0.03125 0.03125 0.03125 0.03125 1:231 2:114 3:53 
-0 0.03125 0.03125 0.03125 0.03125 1:226 2:22 3:53 
-0 0.03125 0.03125 0.03125 0.03125 1:232 2:132 3:29 
-0 0.03125 0.03125 0.03125 0 1:226 2:46 3:26 
-0 0.03125 0.03125 0 0 1:238 2:22 3:41 
-0 0.03125 0.03125 0.03125 0 1:235 2:29 3:20 
-0.02558567065890488 0.03125 0.03125 0.03125 0.01077267722830622 1:232 2:55 3:7 
-0 0.03125 0.03125 0.03125 0 1:235 2:29 3:44 
-0 0.03125 0.03125 0.03125 0.03125 1:235 2:138 3:31 
-0 0.03125 0.03125 0.03125 0.03125 1:248 2:123 3:53 
-0 0.03125 0.03125 0.03125 0 1:235 2:22 3:31 
-0 0.03125 0.03125 0.03125 0 1:226 2:49 3:74 
-0 0.03125 0.03125 0.03125 0 1:226 2:82 3:38 
-0 0.03125 0.03125 0.03125 0.03125 1:209 2:43 3:31 
-0 0.03125 0.03125 0.03125 0.03125 1:243 2:163 3:24 
-0 0.03125 0.03125 0.03125 0 1:231 2:48 3:53 
-0 0.03125 0.03125 0.03125 0.03125 1:232 2:22 3:175 
-0 0.03125 0.03125 0.02212357326637638 0 1:239 2:34 3:53 
-0 0.03125 0.03125 0.03125 0 1:237 2:22 3:22 
-0 0.03125 0.03125 0.03125 0 1:246 2:12 3:58 
-0 0.03125 0.03125 0.03125 0 1:235 2:15 3:53 
-0 0.03125 0.03125 0.03125 0.03125 1:232 2:12 3:67 
-0 0.03125 0.03125 0.03125 0.03125 1:235 2:13 3:77 
-0 0.03125 0.03125 0.03125 0 1:235 2:20 3:28 
-0 0.03125 0.03125 0.03125 0.03125 1:235 2:13 3:28 
-0 0.03125 0.03125 0 0 1:242 2:12 3:37 
-0 0.03125 0.03125 0.03125 0.01479904648906551 1:235 2:13 3:28 
-0 0.03125 0.03125 0 0 1:245 2:12 3:48 
-0 0.03125 0.03125 0.03125 0 1:235 2:20 3:28 
-0.03125 0.03125 0.03125 0 0 1:255 2:12 3:39 
-0.03125 0.03125 0.03125 0.01892924939159703 0 1:254 2:9 3:14 
-0.03125 0.03125 0.03125 0.03125 0.03125 1:248 2:3 3:12 
-0 0.03125 0.03125 0.03125 0 1:235 2:15 3:28 
-0.005664329341095124 0.03125 0.03125 0 0 1:247 2:12 3:36 
-0.03125 0.03125 0.03125 0.03125 0.03125 1:251 2:6 3:15 
-0 0.03125 0.03125 0.03125 0.03125 1:232 2:12 3:74 
-0 0.03125 0.03125 0.03125 0.03125 1:228 2:4 3:27 
-0 0.03125 0.03125 0.03125 0.03125 1:232 2:14 3:30 
-0.03125 0.03125 0.03125 0 0 1:252 2:7 3:40 
-0 0.03125 0.03125 0.03125 0 1:257 2:12 3:81 
-0 0.03125 0.03125 0.03125 0.005678276282628271 1:236 2:10 3:69 
-0 0.03125 0.03125 0.03125 0 1:250 2:12 3:63 
-0.03125 0.03125 0.03125 0 0 1:259 2:12 3:21 
-0 0.03125 0.03125 0.03125 0.03125 1:253 2:164 3:71 
-0 0.03125 0.03125 0.03125 0.03125 1:232 2:3 3:74 
-0 -0 0.03125 0 0 1:178 2:63 3:112 
-0 -0 0.03125 0 0 1:179 2:75 3:112 
-0 -0 0.03125 0 0 1:211 2:54 3:80 
-0 -0.03125 0.03125 0 0 1:226 2:56 3:54 
-0 -0.03125 0.03125 0 0 1:225 2:51 3:53 
-0.003900387368124476 -0.03125 0.03125 0 0 1:212 2:29 3:28 
-0 -0.03125 0.03125 0 0 1:226 2:56 3:59 
-0 -0 0.03125 0 0 1:226 2:59 3:104 
-0 -0.03125 0.03125 0 0 1:224 2:89 3:49 
-0 -0 0.03125 0.03125 0 1:171 2:82 3:74 
-0 -0.03125 0.03125 0 0 1:224 2:75 3:53 
-0 -0.01030757996870921 0.03125 0 0 1:226 2:59 3:74 
-0 -0.03125 0.03125 0 0 1:226 2:34 3:53 
-0 -0 0.03125 0 0 1:226 2:55 3:77 
-0 -0 0.03125 0.03125 0 1:183 2:123 3:63 
-0 -0.03125 0.03125 0 0 1:226 2:108 3:49 
-0 -0.03125 0.03125 0 0 1:226 2:66 3:71 
-0 -0 0.03125 0 0 1:174 2:82 3:74 
-0 -0 0.03125 0 0 1:201 2:49 3:53 
-0 -0.03125 0.03125 0 0 1:226 2:51 3:41 
-0 -0 0.03125 0.03125 0.03125 1:112 2:130 3:122 
-0 -0 0.03125 0 0 1:178 2:85 3:67 
-0 -0 0.03125 0 0 1:178 2:79 3:76 
-0 -0 0.03125 0.03125 0 1:132 2:127 3:90 
-0 -0.03125 0.03125 0 0 1:222 2:54 3:64 
-0 -0 0.03125 0.03125 0.03125 1:77 2:136 3:71 
-0 -0 0.03125 0.03125 0.03125 1:74 2:148 3:122 
-0 -0 0.03125 0.03125 0.03125 1:118 2:79 3:160 
-0 -0 0.03125 0.03125 0 1:171 2:82 3:71 
-0 -0 0.03125 0 0 1:193 2:44 3:53 
-0.00235165024535346 -0.03125 0.03125 0.03125 0.03125 1:60 2:161 3:4 
-0 -0 0.03125 0.03125 0.03125 1:62 2:136 3:63 
-0 -0 0.03125 0.03125 0 1:158 2:117 3:166 
-0 -0.03125 0.03125 0 0 1:226 2:44 3:47 
-0 -0 0.03125 0 0 1:226 2:82 3:90 
-0 -0 0.03125 0.03125 0 1:146 2:118 3:139 
-0 -0 0.03125 0.03125 0 1:151 2:89 3:71 
-0 -0 0.03125 0.03125 0 1:152 2:105 3:74 
-0 -0.03125 0.03125 0 0 1:226 2:56 3:54 
-0 -0 0.03125 0.03125 0.03125 1:107 2:127 3:80 
-0 -0 0.03125 0.03125 0 1:139 2:129 3:172 
-0 -0 0.03125 0.03125 0 1:151 2:133 3:168 
-0 -0 0.03125 0.03125 0 1:153 2:96 3:67 
-0 -0.03125 0.03125 0.03125 0 1:165 2:141 3:53 
-0 -0 0.03125 0.03125 0.03125 1:89 2:128 3:84 
-0 -0 0.03125 0.03125 0 1:151 2:138 3:53 
-0 -0 0.03125 0.03125 0 1:161 2:118 3:71 
-0 -0 0.03125 0.03125 0 1:188 2:108 3:152 
-0 -0 0.03125 0.03125 0.03125 1:56 2:133 3:136 
-0 -0 0.03125 0.03125 0.03125 1:134 2:138 3:74 
-0 -0 0.03125 0.03125 0 1:160 2:89 3:71 
-0 -0 0.03125 0 0 1:199 2:89 3:74 
-0 -0 0.03125 0.0004135089101621959 0 1:226 2:49 3:178 
-0 -0 0.03125 0 0 1:226 2:48 3:112 
-0 -0 0.03125 0 0 1:176 2:63 3:107 
-0 -0.03125 0.03125 0 0 1:226 2:91 3:41 
-0 -0.02190659098498019 0.03125 0 0 1:195 2:130 3:94 
-0 -0 0.03125 0.03125 0 1:161 2:108 3:145 
-0 -0.03125 0.03125 0 0 1:212 2:75 3:47 
-0 -0 0.03125 0 0 1:190 2:71 3:94 
-0 -0.03125 0.03125 0 0 1:226 2:108 3:63 
-0 -0 0.03125 0.03125 0.03125 1:134 2:123 3:54 
-0 -0 0.03125 0 0 1:193 2:108 3:64 
-0 -0 0.03125 0.03125 0 1:180 2:117 3:94 
-0 -0.03125 0.03125 0 0 1:201 2:54 3:34 
-0 -0 0.03125 0.03125 0 1:151 2:127 3:145 
-0 -0 0.03125 0.03125 0 1:152 2:91 3:189 
-0.03125 -0.03125 0.03125 0 0 1:226 2:25 3:37 
-0 -0 0.03125 0 0 1:190 2:59 3:71 
-0 -0.03125 0.03125 0 0 1:198 2:117 3:53 
-0 -0.03125 0 0 0 1:231 2:30 3:53 
-0 -0 0.03125 0 0 1:226 2:54 3:75 
-0 -0 0.03125 0.03125 0 1:156 2:142 3:53 
-0 -0 0.03125 0 0 1:184 2:85 3:42 
-0 -0 0.03125 0.03125 0 1:151 2:129 3:76 
-0 -0 0.03125 0.03125 0.02195433950864576 1:148 2:132 3:47 
-0 -0 0.03125 0.03125 0 1:152 2:120 3:53 
-0 -0 0.03125 0 0 1:226 2:55 3:74 
-0 -0 0.03125 0.03125 0 1:185 2:108 3:152 
-0 -0 0.03125 0.03125 0 1:163 2:82 3:112 
-0 -0 0.03125 0.03125 0 1:166 2:114 3:64 
-0 -0 0.03125 0 0 1:188 2:63 3:76 
-0 -0.03125 0.03125 0 0 1:226 2:46 3:54 
-0 -0 0.03125 0 0 1:226 2:75 3:107 
-0 -0 0.03125 0.03125 0 1:123 2:131 3:154 
-0 -0 0.03125 0 0 1:190 2:85 3:64 
-0 -0 0.03125 0.03125 0 1:152 2:55 3:90 
-0 -0 0.03125 0.03125 0.03125 1:118 2:143 3:74 
-0 -0.03125 0.03125 0 0 1:226 2:56 3:59 
-0 -0 0.03125 0 0 1:226 2:50 3:74 
-0 -0 0.03125 0 0 1:192 2:56 3:80 
-0 -0 0.03125 0.03125 0 1:183 2:91 3:149 
-0 -0.03125 0 0 0 1:232 2:29 3:47 
-0 -0 0.03125 0.03125 0 1:143 2:125 3:99 
-0.02499796238652207 -0.03125 0 0 0 1:251 2:34 3:53 
-0 -0 0.03125 0.03125 0 1:151 2:139 3:127 
-0 -0.03125 0.03125 0 0 1:226 2:100 3:64 
-0 -0 0.03125 0.03125 0 1:178 2:125 3:104 
-0 -0 0.03125 0.03125 0.03125 1:75 2:54 3:87 
-0.03125 -0.03125 0 0 0 1:232 2:17 3:33 
-0 -0.03125 0 0 0 1:226 2:13 3:53 
-0.03125 -0.03125 0 0.03125 0 1:240 2:2 3:45 
-0 -0 0.03125 0 0 1:196 2:20 3:71 
-0 -0 0.03125 0.03125 0.01948731707611438 1:144 2:37 3:173 
-0 -0 0.03125 0 0 1:210 2:22 3:77 
-0 -0 0.03125 0 0 1:215 2:29 3:135 
-0 -0 0.03125 0 0 1:226 2:39 3:116 
-0 -0.03125 0.03125 0 0 1:228 2:54 3:53 
-0 -0 0.03125 0 0 1:226 2:20 3:116 
-0 -0 0.03125 0 0 1:216 2:20 3:160 
-0 -0 0.03125 0 0 1:181 2:45 3:76 
-0 -0 0.03125 0 0 1:226 2:16 3:76 
-0 -0 0.03125 0 0 1:202 2:12 3:91 
-0 -0.03125 0 0 0 1:234 2:11 3:53 
-0 -0 0.03125 0 0 1:226 2:20 3:76 
-0 -0 0.03125 0.03125 0.03125 1:152 2:22 3:102 
-0 -0 0.03125 0.03125 0 1:190 2:20 3:166 
-0 -0.03125 0 0 0 1:244 2:8 3:70 
-0 -0 0.03125 0 0 1:216 2:12 3:74 
-0 -0 0.03125 0 0 1:219 2:21 3:76 
-0 -0.01722297168592017 0 0 0 1:230 2:12 3:79 
-0 -0 0.03125 0.03125 0 1:161 2:39 3:116 
-0 -0.006046145254141228 0.03125 0.03125 0.03125 1:152 2:51 3:2 
-0 -0.03125 0 0 0 1:232 2:12 3:53 
-0 -0 0.03125 0.03125 0 1:191 2:12 3:57 
-0 -0.03125 0.03125 0 0 1:226 2:12 3:68 
-0.03125 -0.03125 0 0.03125 0.03125 1:249 2:5 3:35 
-0 -0 0.03125 0 0 1:194 2:28 3:76 
-0 -0 0.03125 0.03125 0 1:177 2:44 3:53 
-0 -0 0.03125 0.03125 0 1:172 2:29 3:163 
-0 -0 0.03125 0 0 1:226 2:51 3:102 
-0 -0 0.03125 0 0 1:226 2:19 3:108 
-0 -0 0.03125 0.03125 0 1:168 2:48 3:138 
-0 -0 0.03125 0 0 1:226 2:31 3:106 
-0 -0 0.03125 0 0 1:187 2:22 3:72 
-0 -0 0.03125 0.03125 0.03125 1:105 2:56 3:152 
-0 -0 0.03125 0.03125 0 1:158 2:24 3:127 
-0 -0 0.03125 0 0 1:226 2:20 3:124 
-0 -0.03125 0 0 0 1:234 2:12 3:53 
-0 -0 0.03125 0 0 1:221 2:29 3:76 
-0 -0.03125 0 0 0 1:226 2:12 3:53 
-0 -0 0.03125 0 0 1:226 2:12 3:76 
-0 -0.007016712106249212 0.03125 0.03125 0.03125 1:1 2:54 3:20 
-0 -0 0.03125 0 0 1:173 2:49 3:95 
-0 -0 0.03125 0 0 1:205 2:20 3:86 
-0 -0 0.03125 0.03125 0.03125 1:145 2:51 3:76 
-0 -0.03125 0 0.03125 0 1:241 2:3 3:53 
-0 -0 0.03125 0.0308364910898378 0 1:197 2:31 3:159 
-0 -0.03125 0 0 0 1:229 2:18 3:62 
-0 -0 0.03125 0 0 1:213 2:20 3:89 
-0 -0 0.03125 0 0 1:218 2:20 3:76 
-0 -0 0.03125 0 0 1:207 2:20 3:74 
-0 -0 0.03125 0.03125 0.03125 1:131 2:51 3:122 
-0 -0.03125 0.03125 0 0 1:214 2:12 3:44 
-0 -0 0.03125 0 0 1:223 2:20 3:107 
-0 -0 0.03125 0 0 1:200 2:32 3:92 
-0 -0.03125 0 0 0 1:235 2:16 3:51 
-0 -0.03125 0.03125 0 0 1:226 2:20 3:65 
-0 -0 0.03125 0 0 1:226 2:20 3:105 
-0 -0 0.03125 0 0 1:226 2:20 3:74 
-0 -0 0.03125 0 0 1:204 2:55 3:92 
-0 -0 0.03125 0 0 1:226 2:22 3:77 
-0 -0 0.03125 0 0 1:226 2:22 3:129 
-0 -0 0.03125 0 0 1:226 2:35 3:121 
-0 -0 0.03125 0 0 1:203 2:41 3:121 
-0 -0 0.02714060051501751 0 0 1:234 2:20 3:88 
-0 -0 0.03125 0 0 1:211 2:54 3:77 
-0 -0.03125 0 0 0 1:231 2:12 3:53 
-0 -0.03125 0.03125 0 0 1:227 2:33 3:53 
-0 -0 0.03125 0.03125 0.03125 1:155 2:49 3:43 
-0.03125 -0.03125 0 0.03125 0.02105834341523986 1:256 2:12 3:44 
-0 -0.03125 0 0 0 1:234 2:23 3:56 
-0.03125 -0.03125 0 0.03125 0 1:258 2:20 3:41 
-0 -0 0.03125 0.03125 0 1:137 2:52 3:152 
-0 -0.03125 0.03125 0 0 1:226 2:33 3:53 
-0 -0 0.03125 0 0 1:220 2:49 3:112 
-0 -0 0.03125 0 0 1:226 2:20 3:137 
-0 -0 0.03125 0 0 1:226 2:29 3:132 
-0 -0.03125 0 0 0 1:233 2:9 3:83 
-0 -0 0.03125 0 0 1:232 2:12 3:119 
-0 -0.03125 0 0 0 1:234 2:12 3:53 
-0 -0 0.03125 0 0 1:232 2:39 3:160 
-0 -0 -0.03125 0 0 1:121 2:100 3:71 
-0 -0 -0 0.03125 0 1:59 2:133 3:122 
-0 -0 -0.03125 0 0 1:151 2:128 3:86 
-0 -0 -0.03125 0 0 1:158 2:75 3:149 
-0 -0 -0 0.03125 0 1:69 2:138 3:52 
-0 -0 -0 0.03125 0 1:72 2:114 3:112 
-0 -0 -0.03125 0 0 1:134 2:96 3:80 
-0 -0 -0.03125 0 0 1:112 2:63 3:116 
-0 -0 -0.03125 0 0 1:126 2:118 3:152 
-0 -0 -0.03125 0 0 1:99 2:131 3:71 
-0 -0.03125 -0.03125 0 0 1:180 2:91 3:107 
-0 -0 -0.03125 0 0 1:86 2:121 3:64 
-0 -0 -0.03125 0 0 1:112 2:128 3:75 
-0 -0 -0.03125 0 0 1:150 2:112 3:127 
-0 -0.03125 -0.03125 0 0 1:186 2:75 3:67 
-0 -0.03125 -0.03125 0 0 1:163 2:129 3:90 
-0 -0.03125 -0.03125 0 0 1:206 2:91 3:77 
-0 -0 -0.03125 0 0 1:130 2:135 3:76 
-0 -0 -0.03125 0 0 1:136 2:127 3:99 
-0 -0 -0.03125 0 0 1:118 2:108 3:77 
-0 -0.03125 -0.03125 0 0 1:141 2:100 3:74 
-0 -0 -0.03125 0 0 1:91 2:120 3:63 
-0 -0.03125 -0.03125 0 0 1:146 2:56 3:71 
-0 -0 -0 0.03125 0 1:58 2:147 3:71 
-0 -0 -0.03125 0 0 1:103 2:139 3:94 
-0 -0 -0 0.03125 0.03125 1:48 2:114 3:94 
-0 -0.03125 -0.03125 0 0 1:117 2:79 3:53 
-0 -0.03125 -0.03125 0 0 1:151 2:82 3:99 
-0 -0 -0.03125 0 0 1:130 2:127 3:90 
-0 -0 -0.03125 0 0 1:151 2:112 3:99 
-0 -0 -0 0.03125 0 1:27 2:144 3:116 
-0 -0.03125 -0.03125 0 0 1:151 2:51 3:76 
-0 -0 -0.03125 0.03125 0.03125 1:78 2:54 3:80 
-0 -0.03125 -0.03125 0 0 1:151 2:51 3:64 
-0 -0 -0.03125 0.03125 0.03125 1:82 2:59 3:53 
-0 -0.03125 -0.03125 0 0 1:152 2:123 3:76 
-0 -0 -0.03125 0 0 1:134 2:129 3:71 
-0 -0 -0 0.03125 0 1:20 2:152 3:127 
-0 -0 -0 0.03125 0 1:55 2:144 3:112 
-0 -0 -0 0.03125 0.03125 1:26 2:125 3:107 
-0 -0 -0 0.03125 0 1:67 2:135 3:116 
-0 -0 -0.03125 0 0 1:116 2:130 3:76 
-0 -0.03125 -0.03125 0 0 1:153 2:89 3:99 
-0 -0 -0.03125 0 0 1:151 2:100 3:136 
-0 -0 -0 0.03125 0 1:62 2:147 3:104 
-0 -0 -0 0.03125 0.03125 1:10 2:151 3:67 
-0 -0 -0 0.03125 0 1:41 2:151 3:136 
-0 -0 -0 0.03125 0 1:45 2:149 3:76 
-0 -0 -0 0.03125 0 1:44 2:160 3:76 
-0 -0 -0 0.03125 0 1:48 2:140 3:77 
-0.001062806007355103 -0.03125 -0.03125 0 0 1:160 2:123 3:16 
-0 -0 -0.03125 0 0 1:117 2:135 3:152 
-0 -0 -0 0.03125 0 1:46 2:144 3:104 
-0 -0 -0.03125 0 0 1:114 2:130 3:190 
-0 -0 -0 0.03125 0 1:72 2:133 3:53 
-0 -0 -0 0.03125 0.03125 1:32 2:158 3:76 
-0 -0 -0.03125 0 0 1:123 2:112 3:136 
-0 -0 -0.03125 0.03125 0.03125 1:69 2:150 3:28 
-0 -0 -0 0.03125 0 1:46 2:149 3:76 
-0 -0 -0.03125 0.03125 0.03125 1:56 2:143 3:17 
-0 -0 -0 0.03125 0 1:61 2:160 3:94 
-0 -0 -0 0.03125 0 1:40 2:157 3:160 
-0 -0.03125 -0.03125 0 0 1:152 2:123 3:76 
-0 -0 -0 0.00130024821311723 0 1:73 2:138 3:77 
-0 -0 -0.03125 0 0 1:152 2:125 3:99 
-0 -0 -0.03125 0 0 1:94 2:130 3:76 
-0.03125 -0.03125 -0.03125 0 0 1:222 2:55 3:71 
-0 -0 -0 0.03125 0 1:59 2:135 3:107 
-0 -0 -0.03125 0 0 1:98 2:118 3:74 
-0 -0 -0.03125 0 0 1:114 2:135 3:104 
-0 -0 -0 0.03125 0 1:62 2:140 3:145 
-0 -0.002693376716404614 -0.01619891378764223 0.03125 0.03125 1:2 2:141 3:53 
-0 -0 -0.03125 0 0 1:137 2:118 3:160 
-0 -0 -0.03125 0 0 1:123 2:131 3:122 
-0 -0.03125 -0.03125 0 0 1:193 2:54 3:104 
-0 -0 -0.03125 0 0 1:117 2:131 3:53 
-0 -0 -0 0.03125 0 1:61 2:135 3:112 
-0 -0 -0 0.03125 0 1:60 2:148 3:76 
-0.03125 -0.03125 -0.03125 0 0 1:217 2:79 3:76 
-0 -0 -0.03125 0 0 1:95 2:123 3:44 
-0 -0 -0 0.03125 0 1:51 2:147 3:145 
-0 -0 -0.03125 0 0 1:151 2:105 3:104 
-0 -0 -0.03125 0 0 1:111 2:123 3:74 
-0 -0 -0.03125 0 0 1:125 2:117 3:76 
-0 -0 -0.03125 0 0 1:143 2:127 3:94 
-0.03125 -0.03125 -0.03125 0 0 1:222 2:43 3:59 
-0 -0 -0 0.03125 0 1:61 2:141 3:122 
-0 -0 -0 0.03125 0 1:67 2:142 3:86 
-0 -0 -0.03125 0 0 1:109 2:120 3:84 
-0 -0 -0.03125 0 0 1:125 2:96 3:76 
-0 -0 -0.03125 0 0 1:121 2:105 3:86 
-0 -0.03125 -0.03125 0 0 1:151 2:108 3:74 
-0 -0 -0.03125 0 0 1:130 2:129 3:183 
-0 -0 -0.03125 0 0 1:139 2:120 3:76 
-0 -0 -0.03125 0 0 1:117 2:112 3:136 
-0 -0 -0.03125 0 0 1:151 2:89 3:145 
-0 -0 -0 0.03125 0.03125 1:40 2:162 3:71 
-0 -0.03125 -0.03125 0 0 1:151 2:85 3:74 
-0 -0 -0 0.03125 0 1:56 2:129 3:107 
-0 -0 -0.03125 0 0 1:118 2:89 3:104 
-0 -0.03125 -0.03125 0 0 1:156 2:112 3:53 
-0 -0 -0.03125 0 0 1:137 2:100 3:74 
-0 -0 -0.03125 0 0 1:111 2:114 3:90 
-0 -0 -0.03125 0 0 1:156 2:85 3:122 
-0 -0 -0.03125 0 0 1:123 2:135 3:75 
-0 -0 -0.03125 0 0 1:117 2:138 3:149 
-0.01254945908396024 -0.03125 -0.03125 0.03125 0.03125 1:1 2:128 3:28 
-0 -0 -0.03125 0 0 1:117 2:133 3:71 
-0 -0.03125 -0.03125 0 0 1:152 2:89 3:74 
-0 -0 -0 0.03125 0 1:55 2:152 3:94 
-0 -0 -0.03125 0 0 1:163 2:71 3:149 
-0 -0 -0 0.03125 0 1:46 2:148 3:99 
-0 -0.03125 -0.03125 0 0 1:180 2:66 3:76 
-0 -0 -0.03125 0 0 1:107 2:140 3:86 
-0 -0 -0.03125 0.02994975178688277 0 1:76 2:149 3:53 
-0 -0.03125 -0.03125 0 0 1:134 2:125 3:53 
-0 -0.03125 -0.03125 0 0 1:151 2:135 3:63 
-0 -0.02458434771735357 -0.03125 0 0 1:151 2:135 3:86 
-0 -0 -0.03125 0 0 1:116 2:132 3:154 
-0 -0 -0.03125 0 0 1:125 2:127 3:99 
-0 -0.03125 -0.03125 0 0 1:137 2:117 3:59 
-0 -0 -0 0.03125 0 1:61 2:129 3:74 
-0 -0 -0.03125 0 0 1:91 2:121 3:71 
-0 -0.03125 -0.03125 0 0 1:141 2:71 3:71 
-0 -0 -0.03125 0 0 1:120 2:123 3:90 
-0 -0 -0.03125 0 0 1:107 2:152 3:107 
-0 -0 -0 0.03125 0 1:56 2:133 3:112 
-0 -0 -0.01094168672737528 0 0 1:109 2:127 3:127 
-0 -0 -0 0.03125 0 1:58 2:141 3:133 
-0 -0 -0 0.03125 0 1:50 2:146 3:112 
-0 -0 -0 0.03125 0 1:61 2:133 3:116 
-0 -0.03125 -0.03125 0 0 1:161 2:105 3:76 
-0 -0.03125 -0.03125 0 0 1:150 2:114 3:84 
-0 -0 -0.03125 0 0 1:132 2:118 3:64 
-0 -0 -0.03125 0 0 1:114 2:129 3:136 
-0 -0 -0.03125 0 0 1:143 2:96 3:127 
-0 -0 -0.03125 0 0 1:125 2:117 3:74 
-0 -0.03125 -0.03125 0 0 1:166 2:66 3:107 
-0 -0 -0.03125 0 0 1:121 2:158 3:152 
-0 -0 -0 0.03125 0.03125 1:63 2:117 3:67 
-0 -0 -0 0.03125 0.03125 1:24 2:132 3:99 
-0.03125 -0.03125 -0.03125 0 0 1:198 2:55 3:74 
-0 -0 -0.03125 0 0 1:127 2:118 3:127 
-0 -0 -0.03125 0 0 1:130 2:123 3:186 
-0 -0 -0.03125 0 0 1:151 2:136 3:122 
-0 -0 -0 0.03125 0 1:71 2:70 3:194 
-0 -0 -0 0.03125 0.03125 1:17 2:106 3:73 
-0 -0 -0.03125 0 0 1:104 2:75 3:174 
-0 -0 -0.03125 0 0 1:149 2:44 3:142 
-0 -0.03125 -0.03125 0 0 1:147 2:30 3:74 
-0.008172505664249971 -0.03125 -0.03125 0 0 1:182 2:28 3:84 
-0 -0 -0 0.03125 0.03125 1:57 2:53 3:113 
-0 -0 -0.03125 0 0 1:114 2:113 3:144 
-0 -0 -0.03125 0 0 1:124 2:81 3:196 
-0.009465229244434688 -0.03085631193070908 -0 0.03125 0 1:14 2:94 3:198 
-0 -0.03125 -0.03125 0.03125 0.03125 1:88 2:77 3:11 
-0 -0 -0.03125 0 0 1:151 2:71 3:195 
-0 -0 -0.03125 0.03125 0.03125 1:82 2:39 3:77 
-0 -0 -0 0.03125 0.03125 1:26 2:112 3:116 
-0 -0.03125 -0.03125 0 0 1:167 2:54 3:97 
-0 -0 -0.03125 0 0 1:140 2:26 3:168 
-0 -0 -0.03125 0 0 1:131 2:31 3:115 
-0 -0 -0.03125 0.03125 0.03125 1:83 2:31 3:76 
-0 -0 -0 0.03125 0 1:53 2:90 3:131 
-0 -0 -0.03125 0 0 1:115 2:54 3:96 
-0 -0 -0.03125 0 0 1:93 2:104 3:76 
-0.03125 -0.03125 -0.03125 0 0 1:179 2:27 3:61 
-0 -0 -0.03125 0 0 1:151 2:44 3:145 
-0 -0.00436596363553273 -0.03125 0 0 1:125 2:40 3:92 
-0 -0.03125 -0.03125 0 0 1:154 2:36 3:181 
-0 -0 -0 0.03125 0.03125 1:7 2:88 3:156 
-0 -0 -0 0.03125 0 1:54 2:49 3:169 
-0 -0 -0 0.03125 0.03125 1:36 2:65 3:155 
-0 -0.03125 -0.03125 0 0 1:138 2:12 3:82 
-0 -0 -0.03125 0 0 1:113 2:54 3:176 
-0 -0.03125 -0.03125 0 0 1:151 2:29 3:137 
-0 -0 -0.03125 0 0 1:122 2:49 3:130 
-0 -0 -0.03125 0 0 1:110 2:55 3:167 
-0 -0 -0.03125 0.03125 0.03125 1:68 2:29 3:76 
-0 -0 -0.03125 0.03125 0.03125 1:59 2:59 3:74 
-0 -0 -0.03125 0 0 1:133 2:38 3:125 
-0 -0 -0 0.03125 0 1:64 2:77 3:157 
-0 -0 -0.03125 0 0 1:132 2:54 3:143 
-0 -0 -0 0.03125 0 1:70 2:56 3:117 
-0 -0 -0.03125 0 0 1:90 2:56 3:111 
-0 -0 -0.03125 0 0 1:97 2:51 3:98 
-0 -0.03125 -0.03125 0 0 1:170 2:45 3:141 
-0 -0.03125 -0.03125 0 0 1:151 2:29 3:93 
-0 -0 -0 0.03125 0 1:31 2:102 3:134 
-0 -0 -0 0.03125 0 1:47 2:104 3:171 
-0 -0 -0.03125 0 0 1:100 2:56 3:142 
-0 -0 -0.03125 0 0 1:142 2:54 3:161 
-0 -0 -0 0.03125 0 1:22 2:115 3:185 
-0 -0 -0.03125 0 0 1:102 2:51 3:122 
-0 -0.03125 -0.03125 0 0 1:175 2:54 3:101 
-0 -0 -0.03125 0.03125 0 1:79 2:57 3:188 
-0 -0.03125 -0.03125 0 0 1:151 2:59 3:114 
-0 -0 -0.03125 0 0 1:96 2:55 3:158 
-0 -0 -0.03125 0 0 1:106 2:55 3:187 
-0 -0.03125 -0.03125 0 0 1:157 2:48 3:123 
-0 -0.03125 -0.03125 0 0 1:152 2:32 3:150 
-0 -0 -0.03125 0 0 1:119 2:49 3:180 
-0 -0 -0.03125 0 0 1:135 2:61 3:110 
-0 -0 -0.03125 0 0 1:92 2:67 3:78 
-0 -0 -0.03125 0 0 1:128 2:92 3:192 
-0.03125 -0.03125 -0.03125 0 0 1:208 2:47 3:76 
-0 -0.03125 -0.03125 0 0 1:164 2:56 3:151 
-0 -0.03125 -0.03125 0 0 1:189 2:56 3:141 
-0 -0 -0.03125 0 0 1:151 2:75 3:126 
-0 -0 -0 0.03125 0 1:66 2:109 3:164 
-0 -0 -0.03125 0 0 1:151 2:42 3:179 
-0 -0.03125 -0.03125 0 0 1:159 2:78 3:100 
-0 -0 -0.03125 0 0 1:129 2:55 3:158 
-0 -0 -0.03125 0 0 1:108 2:91 3:144 
-0 -0 -0.03125 0 0 1:126 2:56 3:167 
-0 -0 -0.03125 0 0 1:84 2:67 3:182 
-0 -0.03125 -0.03125 0 0 1:162 2:49 3:170 
-0 -0 -0.03125 -0.03125 0 1:8 2:155 3:99 
-0 -0.03125 -0.03125 -0.03125 0.03125 1:1 2:131 3:28 
-0 -0 -0.03125 -0.03125 0.03125 1:1 2:100 3:76 
-0 -0 -0.03125 -0.03125 0 1:1 2:147 3:99 
-0 -0.03125 -0.03125 -0.03125 0.03125 1:1 2:148 3:52 
-0 -0 -0.03125 -0.03125 0 1:5 2:148 3:94 
-0 -0.03125 -0.03125 -0.03125 0 1:32 2:156 3:76 
-0 -0.03125 -0.03125 -0.03125 0 1:15 2:154 3:71 
-0 -0 -0.03125 -0.03125 0.03125 1:1 2:105 3:74 
-0 -0.03125 -0.03125 -0.03125 0 1:38 2:154 3:99 
-0 -0.03125 -0.03125 -0.03125 0 1:52 2:144 3:136 
-0 -0.03125 -0.03125 -0.03125 0.01346764426267205 1:1 2:153 3:52 
-0 -0 -0.03125 -0.03125 0 1:1 2:148 3:76 
-0 -0 -0.03125 -0.03125 0 1:1 2:148 3:80 
-0 -0 -0.03125 -0.03125 0 1:1 2:156 3:90 
-0 -0.03125 -0.03125 -0.03125 0 1:46 2:148 3:74 
-0 -0.03125 -0.03125 -0.03125 0 1:50 2:144 3:74 
-0 -0 -0.03125 -0.03125 0 1:26 2:128 3:116 
-0.03125 -0.03125 -0.03125 -0.03125 0.03125 1:1 2:147 3:28 
-0 -0.03125 -0.03125 -0.03125 0 1:35 2:147 3:99 
-0 -0 -0.03125 -0.03125 0 1:1 2:131 3:94 
-0 -0.03125 -0.03125 -0.03125 0.03125 1:45 2:105 3:63 
-0 -0.03125 -0.03125 -0.03125 0 1:1 2:148 3:59 
-0 -0.03125 -0.03125 -0.03125 0.03125 1:1 2:141 3:53 
-0 -0.03125 -0.03125 -0.03125 0 1:29 2:153 3:127 
-0 -0.002465347383273752 -0.03125 -0.03125 0 1:11 2:141 3:74 
-0 -0.03125 -0.03125 -0.03125 0.03125 1:1 2:82 3:77 
-0 -0 -0.03125 -0.03125 0 1:1 2:148 3:107 
-0 -0.03125 -0.03125 -0.03125 0 1:46 2:140 3:94 
-0.03125 -0.03125 -0.03125 -0.03125 0.03125 1:24 2:63 3:53 
-0 -0.03125 -0.03125 -0.03125 0 1:48 2:128 3:112 
-0 -0.03125 -0.03125 -0.03125 0 1:34 2:133 3:76 
-0.01938018944283855 -0.03125 -0.03125 -0.03125 0 1:29 2:159 3:53 
-0 -0 -0.03125 -0.03125 0 1:15 2:138 3:122 
-0 -0 -0.03125 -0.03125 0 1:16 2:151 3:116 
-0 -0.03125 -0.03125 -0.03125 0 1:28 2:116 3:140 
-0 -0.03125 -0.03125 -0.03125 0.01778235573732796 1:37 2:55 3:118 
-0 -0.03125 -0.03125 -0.03125 0 1:9 2:71 3:127 
-0 -0.03125 -0.03125 -0.03125 0 1:25 2:122 3:166 
-0 -0.03125 -0.03125 -0.03125 0 1:19 2:98 3:147 
-0 -0.007337475274699663 -0.03125 -0.03125 0 1:21 2:126 3:146 
-0.03125 -0.03125 -0.03125 -0.03125 0 1:13 2:108 3:198 
-0.03125 -0.03125 -0.03125 -0.03125 0.03125 1:42 2:56 3:76 
-0 -0.03125 -0.03125 -0.03125 0 1:4 2:64 3:124 
-0 -0 -0.03125 -0.03125 0 1:1 2:111 3:103 
-0 -0.03125 -0.03125 -0.03125 0.03125 1:1 2:68 3:77 
-0 -0 -0.03125 -0.03125 0.03125 1:1 2:99 3:74 
-0 -0.03125 -0.03125 -0.03125 0 1:33 2:72 3:120 
-0 -0.03125 -0.03125 -0.03125 0.03125 1:1 2:69 3:55 
-0 -0.03125 -0.03125 -0.03125 0.03125 1:1 2:119 3:53 
-0 -0 -0.03125 -0.03125 0.03125 1:3 2:91 3:83 
-0 -0.03125 -0.03125 -0.03125 0.03125 1:1 2:59 3:74 
-0 -0.03125 -0.03125 -0.03125 0 1:18 2:73 3:109 
-0 -0.03125 -0.03125 -0.03125 0.03125 1:1 2:62 3:122 
-0.03125 -0.03125 -0.03125 -0.03125 0.03125 1:49 2:95 3:60 
-0 -0.03125 -0.03125 -0.03125 0.03125 1:1 2:54 3:81 
-0 -0 -0.03125 -0.03125 0.03125 1:1 2:93 3:73 
-0 -0.03125 -0.03125 -0.03125 0 1:39 2:80 3:153 
-0 -0 -0.03125 -0.03125 0.03125 1:1 2:97 3:85 
-0 -0 -0.03125 -0.03125 0 1:6 2:101 3:101 
-0.03125 -0.03125 -0.03125 -0.03125 0 1:43 2:87 3:184 
-0 -0.03125 -0.03125 -0.03125 0 1:1 2:56 3:148 
-0 -0.03125 -0.03125 -0.03125 0 1:1 2:110 3:176 
-0 -0 -0.03125 -0.03125 0 1:1 2:86 3:106 
-0 -0.03125 -0.03125 -0.03125 0 1:23 2:76 3:169 
-0 -0.03125 -0.03125 -0.03125 0 1:30 2:114 3:153 
-0.01186981055716145 -0.03125 -0.03125 -0.03125 0 1:1 2:56 3:177 
-0 -0 -0.03125 -0.03125 0.03125 1:1 2:86 3:76 
-0.03125 -0.03125 -0.03125 -0.03125 -0.03125 1:1 2:146 3:28 
-0.03125 -0.03125 -0.03125 -0.03125 -0.03125 1:1 2:84 3:128 
-0.03125 -0.03125 -0.03125 -0.03125 -0.03125 1:1 2:20 3:3 
-0 -0.03125 -0.03125 -0.03125 -0.03125 1:1 2:124 3:53 
-0.03125 -0.03125 -0.03125 -0.03125 -0.03125 1:1 2:107 3:113 
-0.02575850124052484 -0.03125 -0.03125 -0.03125 -0.03125 1:1 2:134 3:77 
-0 -0.03125 -0.03125 -0.03125 -0.03125 1:1 2:56 3:31 
-0 -0.03125 -0.03125 -0.03125 -0.03125 1:1 2:60 3:18 
-0 -0.03125 -0.03125 -0.03125 -0.03125 1:1 2:103 3:31 
-0 -0.03125 -0.03125 -0.03125 -0.03125 1:1 2:66 3:53 
-0 -0.03125 -0.03125 -0.03125 -0.03125 1:1 2:58 3:66 
-0 -0.03125 -0.03125 -0.03125 -0.03125 1:1 2:93 3:44 
-0 -0.03125 -0.03125 -0.03125 -0.03125 1:1 2:97 3:31 
-0 -0.03125 -0.03125 -0.03125 -0.03125 1:1 2:56 3:30 
-0 -0.03125 -0.03125 -0.03125 -0.03125 1:1 2:60 3:46 
-0.03125 -0.03125 -0.03125 -0.03125 -0.03125 1:1 2:51 3:25 
-0.005491498759475161 -0.03125 -0.03125 -0.03125 -0.03125 1:1 2:51 3:25 
-0 -0.03125 -0.03125 -0.03125 -0.03125 1:1 2:56 3:32 
-0 -0.03125 -0.03125 -0.03125 -0.03125 1:1 2:57 3:31 
-0 -0.03125 -0.03125 -0.03125 -0.03125 1:1 2:83 3:50 
-0 -0.03125 -0.03125 -0.03125 -0.03125 1:1 2:57 3:53 
-0.03125 -0.03125 -0.03125 -0.03125 -0.03125 1:1 2:12 3:5 
-0 -0.03125 -0.03125 -0.03125 -0.03125 1:1 2:59 3:31 
